digraph Tree {
node [shape=box] ;
0 [label="CPL <= 138.915\nmse = 2466658.835\nsamples = 53943\nvalue = 315.678"] ;
1 [label="CPL <= 93.755\nmse = 106078.795\nsamples = 34319\nvalue = 40.912"] ;
0 -> 1 [labeldistance=2.5, labelangle=45, headlabel="True"] ;
2 [label="CPL <= 46.7\nmse = 13288.879\nsamples = 30828\nvalue = 9.598"] ;
1 -> 2 ;
3 [label="CPL <= 23.525\nmse = 971.364\nsamples = 28269\nvalue = 1.443"] ;
2 -> 3 ;
4 [label="CPL <= 18.605\nmse = 225.949\nsamples = 27154\nvalue = 0.283"] ;
3 -> 4 ;
5 [label="CPL <= 2.695\nmse = 160.743\nsamples = 26937\nvalue = 0.18"] ;
4 -> 5 ;
6 [label="CPC <= 78.195\nmse = 157.553\nsamples = 26548\nvalue = 0.116"] ;
5 -> 6 ;
7 [label="mse = 149.559\nsamples = 23186\nvalue = 0.09"] ;
6 -> 7 ;
8 [label="mse = 212.649\nsamples = 3362\nvalue = 0.294"] ;
6 -> 8 ;
9 [label="CPC <= 8.72\nmse = 358.808\nsamples = 389\nvalue = 4.58"] ;
5 -> 9 ;
10 [label="mse = 1698.606\nsamples = 60\nvalue = 17.174"] ;
9 -> 10 ;
11 [label="mse = 80.266\nsamples = 329\nvalue = 2.283"] ;
9 -> 11 ;
12 [label="CPL <= 21.68\nmse = 8156.941\nsamples = 217\nvalue = 13.006"] ;
4 -> 12 ;
13 [label="CPL <= 21.4\nmse = 53943.496\nsamples = 29\nvalue = 88.33"] ;
12 -> 13 ;
14 [label="mse = 6252.672\nsamples = 28\nvalue = 46.967"] ;
13 -> 14 ;
15 [label="mse = 0.0\nsamples = 1\nvalue = 1246.51"] ;
13 -> 15 ;
16 [label="CPC <= 4.67\nmse = 83.923\nsamples = 188\nvalue = 1.387"] ;
12 -> 16 ;
17 [label="mse = 3069.16\nsamples = 2\nvalue = 55.4"] ;
16 -> 17 ;
18 [label="mse = 20.116\nsamples = 186\nvalue = 0.807"] ;
16 -> 18 ;
19 [label="CPL <= 23.99\nmse = 18293.993\nsamples = 1115\nvalue = 29.691"] ;
3 -> 19 ;
20 [label="mse = 0.0\nsamples = 1\nvalue = 1246.51"] ;
19 -> 20 ;
21 [label="CPC <= 20.65\nmse = 16980.094\nsamples = 1114\nvalue = 28.599"] ;
19 -> 21 ;
22 [label="CPC <= 18.73\nmse = 48853.848\nsamples = 166\nvalue = 89.376"] ;
21 -> 22 ;
23 [label="mse = 41111.719\nsamples = 153\nvalue = 69.058"] ;
22 -> 23 ;
24 [label="mse = 77935.828\nsamples = 13\nvalue = 328.496"] ;
22 -> 24 ;
25 [label="CPC <= 35.83\nmse = 10638.755\nsamples = 948\nvalue = 17.956"] ;
21 -> 25 ;
26 [label="mse = 26129.941\nsamples = 346\nvalue = 38.511"] ;
25 -> 26 ;
27 [label="mse = 1352.801\nsamples = 602\nvalue = 6.143"] ;
25 -> 27 ;
28 [label="CPL <= 47.25\nmse = 140508.649\nsamples = 2559\nvalue = 99.686"] ;
2 -> 28 ;
29 [label="mse = 0.0\nsamples = 1\nvalue = 2715.7"] ;
28 -> 29 ;
30 [label="CPC <= 68.765\nmse = 137887.188\nsamples = 2558\nvalue = 98.663"] ;
28 -> 30 ;
31 [label="CPC <= 68.645\nmse = 190146.554\nsamples = 1492\nvalue = 141.561"] ;
30 -> 31 ;
32 [label="CPL <= 66.19\nmse = 184017.693\nsamples = 1491\nvalue = 139.513"] ;
31 -> 32 ;
33 [label="mse = 50082.913\nsamples = 658\nvalue = 69.395"] ;
32 -> 33 ;
34 [label="mse = 282863.459\nsamples = 833\nvalue = 194.9"] ;
32 -> 34 ;
35 [label="mse = 0.0\nsamples = 1\nvalue = 3194.76"] ;
31 -> 35 ;
36 [label="CPC <= 82.465\nmse = 58563.244\nsamples = 1066\nvalue = 38.623"] ;
30 -> 36 ;
37 [label="CPL <= 81.02\nmse = 116964.852\nsamples = 459\nvalue = 65.956"] ;
36 -> 37 ;
38 [label="mse = 4949.382\nsamples = 357\nvalue = 16.766"] ;
37 -> 38 ;
39 [label="mse = 470909.091\nsamples = 102\nvalue = 238.122"] ;
37 -> 39 ;
40 [label="CPC <= 113.11\nmse = 13409.052\nsamples = 607\nvalue = 17.953"] ;
36 -> 40 ;
41 [label="mse = 18153.085\nsamples = 442\nvalue = 23.172"] ;
40 -> 41 ;
42 [label="mse = 432.385\nsamples = 165\nvalue = 3.973"] ;
40 -> 42 ;
43 [label="CPC <= 110.25\nmse = 840355.448\nsamples = 3491\nvalue = 317.435"] ;
1 -> 43 ;
44 [label="CPC <= 69.44\nmse = 1087010.592\nsamples = 2383\nvalue = 422.807"] ;
43 -> 44 ;
45 [label="CPL <= 103.68\nmse = 530425.461\nsamples = 964\nvalue = 243.749"] ;
44 -> 45 ;
46 [label="CPL <= 102.465\nmse = 1114001.403\nsamples = 142\nvalue = 603.945"] ;
45 -> 46 ;
47 [label="CPL <= 94.02\nmse = 947660.548\nsamples = 128\nvalue = 523.626"] ;
46 -> 47 ;
48 [label="mse = 494891.145\nsamples = 2\nvalue = 2297.375"] ;
47 -> 48 ;
49 [label="mse = 904115.227\nsamples = 126\nvalue = 495.471"] ;
47 -> 49 ;
50 [label="CPC <= 62.62\nmse = 2036582.52\nsamples = 14\nvalue = 1338.294"] ;
46 -> 50 ;
51 [label="mse = 816114.927\nsamples = 10\nvalue = 716.358"] ;
50 -> 51 ;
52 [label="mse = 1703217.771\nsamples = 4\nvalue = 2893.132"] ;
50 -> 52 ;
53 [label="CPL <= 138.01\nmse = 403328.534\nsamples = 822\nvalue = 181.525"] ;
45 -> 53 ;
54 [label="CPL <= 132.43\nmse = 525150.57\nsamples = 613\nvalue = 234.378"] ;
53 -> 54 ;
55 [label="mse = 468834.355\nsamples = 591\nvalue = 213.079"] ;
54 -> 55 ;
56 [label="mse = 1698442.637\nsamples = 22\nvalue = 806.549"] ;
54 -> 56 ;
57 [label="CPC <= 48.265\nmse = 13799.014\nsamples = 209\nvalue = 26.507"] ;
53 -> 57 ;
58 [label="mse = 479.241\nsamples = 39\nvalue = 3.551"] ;
57 -> 58 ;
59 [label="mse = 16706.097\nsamples = 170\nvalue = 31.774"] ;
57 -> 59 ;
60 [label="CPL <= 115.685\nmse = 1428549.385\nsamples = 1419\nvalue = 544.45"] ;
44 -> 60 ;
61 [label="CPC <= 75.825\nmse = 695135.059\nsamples = 564\nvalue = 321.363"] ;
60 -> 61 ;
62 [label="CPL <= 109.385\nmse = 1894607.736\nsamples = 85\nvalue = 692.088"] ;
61 -> 62 ;
63 [label="mse = 2636375.005\nsamples = 54\nvalue = 950.384"] ;
62 -> 63 ;
64 [label="mse = 283838.906\nsamples = 31\nvalue = 242.153"] ;
62 -> 64 ;
65 [label="CPL <= 107.82\nmse = 453568.48\nsamples = 479\nvalue = 255.577"] ;
61 -> 65 ;
66 [label="mse = 145567.703\nsamples = 259\nvalue = 141.802"] ;
65 -> 66 ;
67 [label="mse = 782988.894\nsamples = 220\nvalue = 389.521"] ;
65 -> 67 ;
68 [label="CPL <= 116.565\nmse = 1857860.297\nsamples = 855\nvalue = 691.609"] ;
60 -> 68 ;
69 [label="CPL <= 116.42\nmse = 23415652.825\nsamples = 4\nvalue = 4701.34"] ;
68 -> 69 ;
70 [label="mse = 4431619.739\nsamples = 3\nvalue = 2113.423"] ;
69 -> 70 ;
71 [label="mse = 0.0\nsamples = 1\nvalue = 12465.09"] ;
69 -> 71 ;
72 [label="CPL <= 137.915\nmse = 1680603.873\nsamples = 851\nvalue = 672.762"] ;
68 -> 72 ;
73 [label="mse = 1994410.822\nsamples = 635\nvalue = 815.911"] ;
72 -> 73 ;
74 [label="mse = 520728.775\nsamples = 216\nvalue = 251.931"] ;
72 -> 74 ;
75 [label="CPC <= 119.76\nmse = 234629.044\nsamples = 1108\nvalue = 90.808"] ;
43 -> 75 ;
76 [label="CPL <= 120.495\nmse = 498195.047\nsamples = 282\nvalue = 192.816"] ;
75 -> 76 ;
77 [label="CPL <= 98.35\nmse = 25850.306\nsamples = 209\nvalue = 30.307"] ;
76 -> 77 ;
78 [label="CPC <= 113.11\nmse = 474706.835\nsamples = 3\nvalue = 746.367"] ;
77 -> 78 ;
79 [label="mse = 0.0\nsamples = 1\nvalue = 1662.01"] ;
78 -> 79 ;
80 [label="mse = 83258.217\nsamples = 2\nvalue = 288.545"] ;
78 -> 80 ;
81 [label="CPC <= 117.105\nmse = 11737.701\nsamples = 206\nvalue = 19.879"] ;
77 -> 81 ;
82 [label="mse = 6930.701\nsamples = 200\nvalue = 11.888"] ;
81 -> 82 ;
83 [label="mse = 98896.971\nsamples = 6\nvalue = 286.235"] ;
81 -> 83 ;
84 [label="CPL <= 138.185\nmse = 1558440.879\nsamples = 73\nvalue = 658.083"] ;
76 -> 84 ;
85 [label="CPL <= 135.37\nmse = 2207536.824\nsamples = 43\nvalue = 909.459"] ;
84 -> 85 ;
86 [label="mse = 2096541.708\nsamples = 40\nvalue = 774.88"] ;
85 -> 86 ;
87 [label="mse = 226157.854\nsamples = 3\nvalue = 2703.847"] ;
85 -> 87 ;
88 [label="CPC <= 117.07\nmse = 407677.859\nsamples = 30\nvalue = 297.778"] ;
84 -> 88 ;
89 [label="mse = 462960.03\nsamples = 25\nvalue = 324.093"] ;
88 -> 89 ;
90 [label="mse = 110492.419\nsamples = 5\nvalue = 166.202"] ;
88 -> 90 ;
91 [label="CPL <= 129.555\nmse = 139881.069\nsamples = 826\nvalue = 55.982"] ;
75 -> 91 ;
92 [label="CPC <= 123.59\nmse = 14186.159\nsamples = 446\nvalue = 22.837"] ;
91 -> 92 ;
93 [label="CPL <= 109.96\nmse = 23428.631\nsamples = 214\nvalue = 37.897"] ;
92 -> 93 ;
94 [label="mse = 267976.153\nsamples = 3\nvalue = 482.187"] ;
93 -> 94 ;
95 [label="mse = 17105.209\nsamples = 211\nvalue = 31.58"] ;
93 -> 95 ;
96 [label="CPL <= 113.67\nmse = 5258.577\nsamples = 232\nvalue = 8.945"] ;
92 -> 96 ;
97 [label="mse = 23322.625\nsamples = 44\nvalue = 26.756"] ;
96 -> 97 ;
98 [label="mse = 939.2\nsamples = 188\nvalue = 4.776"] ;
96 -> 98 ;
99 [label="CPL <= 136.57\nmse = 284604.406\nsamples = 380\nvalue = 94.884"] ;
91 -> 99 ;
100 [label="CPL <= 135.31\nmse = 1867010.482\nsamples = 22\nvalue = 839.379"] ;
99 -> 100 ;
101 [label="mse = 214401.825\nsamples = 17\nvalue = 395.108"] ;
100 -> 101 ;
102 [label="mse = 4533126.083\nsamples = 5\nvalue = 2349.9"] ;
100 -> 102 ;
103 [label="CPC <= 123.88\nmse = 151206.954\nsamples = 358\nvalue = 49.133"] ;
99 -> 103 ;
104 [label="mse = 398036.881\nsamples = 12\nvalue = 346.252"] ;
103 -> 104 ;
105 [label="mse = 139478.457\nsamples = 346\nvalue = 38.828"] ;
103 -> 105 ;
106 [label="CPL <= 541.635\nmse = 6231978.051\nsamples = 19624\nvalue = 796.197"] ;
0 -> 106 [labeldistance=2.5, labelangle=-45, headlabel="False"] ;
107 [label="CPC <= 92.62\nmse = 6933753.061\nsamples = 16550\nvalue = 899.801"] ;
106 -> 107 ;
108 [label="CPL <= 184.535\nmse = 1117298.152\nsamples = 2204\nvalue = 328.475"] ;
107 -> 108 ;
109 [label="CPC <= 86.62\nmse = 1429470.021\nsamples = 1013\nvalue = 483.445"] ;
108 -> 109 ;
110 [label="CPL <= 141.69\nmse = 774499.039\nsamples = 789\nvalue = 321.49"] ;
109 -> 110 ;
111 [label="CPL <= 140.785\nmse = 2108703.157\nsamples = 18\nvalue = 1359.394"] ;
110 -> 111 ;
112 [label="mse = 608792.274\nsamples = 11\nvalue = 747.121"] ;
111 -> 112 ;
113 [label="mse = 2950889.266\nsamples = 7\nvalue = 2321.539"] ;
111 -> 113 ;
114 [label="CPC <= 78.53\nmse = 717613.424\nsamples = 771\nvalue = 297.258"] ;
110 -> 114 ;
115 [label="mse = 400820.453\nsamples = 478\nvalue = 202.576"] ;
114 -> 115 ;
116 [label="mse = 1195945.114\nsamples = 293\nvalue = 451.722"] ;
114 -> 116 ;
117 [label="CPL <= 183.995\nmse = 3318675.343\nsamples = 224\nvalue = 1053.904"] ;
109 -> 117 ;
118 [label="CPC <= 90.955\nmse = 3075023.268\nsamples = 223\nvalue = 1019.931"] ;
117 -> 118 ;
119 [label="mse = 4247927.565\nsamples = 125\nvalue = 1323.909"] ;
118 -> 119 ;
120 [label="mse = 1310780.443\nsamples = 98\nvalue = 632.205"] ;
118 -> 120 ;
121 [label="mse = 0.0\nsamples = 1\nvalue = 8629.9"] ;
117 -> 121 ;
122 [label="CPL <= 241.47\nmse = 813981.607\nsamples = 1191\nvalue = 196.666"] ;
108 -> 122 ;
123 [label="CPL <= 240.225\nmse = 1135839.658\nsamples = 689\nvalue = 280.718"] ;
122 -> 123 ;
124 [label="CPL <= 185.835\nmse = 1090521.42\nsamples = 687\nvalue = 269.011"] ;
123 -> 124 ;
125 [label="mse = 423171.369\nsamples = 306\nvalue = 138.199"] ;
124 -> 125 ;
126 [label="mse = 1601722.073\nsamples = 381\nvalue = 374.073"] ;
124 -> 126 ;
127 [label="CPL <= 240.47\nmse = 484910.286\nsamples = 2\nvalue = 4301.995"] ;
123 -> 127 ;
128 [label="mse = 0.0\nsamples = 1\nvalue = 3605.64"] ;
127 -> 128 ;
129 [label="mse = 0.0\nsamples = 1\nvalue = 4998.35"] ;
127 -> 129 ;
130 [label="CPC <= 88.84\nmse = 349223.293\nsamples = 502\nvalue = 81.304"] ;
122 -> 130 ;
131 [label="CPL <= 448.375\nmse = 65915.331\nsamples = 372\nvalue = 44.065"] ;
130 -> 131 ;
132 [label="mse = 32539.733\nsamples = 357\nvalue = 34.528"] ;
131 -> 132 ;
133 [label="mse = 806576.258\nsamples = 15\nvalue = 271.031"] ;
131 -> 133 ;
134 [label="CPC <= 90.18\nmse = 1144596.591\nsamples = 130\nvalue = 187.864"] ;
130 -> 134 ;
135 [label="mse = 17059962.546\nsamples = 6\nvalue = 2085.21"] ;
134 -> 135 ;
136 [label="mse = 191879.949\nsamples = 124\nvalue = 96.057"] ;
134 -> 136 ;
137 [label="CPC <= 184.55\nmse = 7769493.056\nsamples = 14346\nvalue = 987.575"] ;
107 -> 137 ;
138 [label="CPL <= 322.635\nmse = 9130411.21\nsamples = 8318\nvalue = 1188.162"] ;
137 -> 138 ;
139 [label="CPL <= 184.76\nmse = 10098169.642\nsamples = 7050\nvalue = 1312.353"] ;
138 -> 139 ;
140 [label="CPC <= 138.08\nmse = 3215485.962\nsamples = 2324\nvalue = 798.019"] ;
139 -> 140 ;
141 [label="mse = 4382971.853\nsamples = 1441\nvalue = 1100.86"] ;
140 -> 141 ;
142 [label="mse = 916304.255\nsamples = 883\nvalue = 303.803"] ;
140 -> 142 ;
143 [label="CPC <= 138.55\nmse = 13288657.288\nsamples = 4726\nvalue = 1565.276"] ;
139 -> 143 ;
144 [label="mse = 10747926.568\nsamples = 2583\nvalue = 1234.212"] ;
143 -> 144 ;
145 [label="mse = 16059710.795\nsamples = 2143\nvalue = 1964.315"] ;
143 -> 145 ;
146 [label="CPC <= 148.97\nmse = 3187194.751\nsamples = 1268\nvalue = 497.664"] ;
138 -> 146 ;
147 [label="CPC <= 131.745\nmse = 629945.703\nsamples = 604\nvalue = 234.058"] ;
146 -> 147 ;
148 [label="mse = 258860.109\nsamples = 364\nvalue = 129.677"] ;
147 -> 148 ;
149 [label="mse = 1151171.578\nsamples = 240\nvalue = 392.369"] ;
147 -> 149 ;
150 [label="CPC <= 149.61\nmse = 5392660.174\nsamples = 664\nvalue = 737.451"] ;
146 -> 150 ;
151 [label="mse = 0.0\nsamples = 1\nvalue = 9547.34"] ;
150 -> 151 ;
152 [label="mse = 5283552.257\nsamples = 663\nvalue = 724.163"] ;
150 -> 152 ;
153 [label="CPL <= 282.25\nmse = 5759438.535\nsamples = 6028\nvalue = 710.787"] ;
137 -> 153 ;
154 [label="CPC <= 228.145\nmse = 2737936.315\nsamples = 1994\nvalue = 361.106"] ;
153 -> 154 ;
155 [label="CPL <= 224.59\nmse = 4340942.237\nsamples = 1149\nvalue = 556.479"] ;
154 -> 155 ;
156 [label="mse = 398030.08\nsamples = 604\nvalue = 182.073"] ;
155 -> 156 ;
157 [label="mse = 8383172.416\nsamples = 545\nvalue = 971.418"] ;
155 -> 157 ;
158 [label="CPC <= 240.47\nmse = 435748.33\nsamples = 845\nvalue = 95.444"] ;
154 -> 158 ;
159 [label="mse = 1761674.495\nsamples = 180\nvalue = 263.588"] ;
158 -> 159 ;
160 [label="mse = 67126.966\nsamples = 665\nvalue = 49.932"] ;
158 -> 160 ;
161 [label="CPC <= 320.53\nmse = 7162645.349\nsamples = 4034\nvalue = 883.633"] ;
153 -> 161 ;
162 [label="CPC <= 185.27\nmse = 8519099.817\nsamples = 3045\nvalue = 1054.86"] ;
161 -> 162 ;
163 [label="mse = 1520858.367\nsamples = 365\nvalue = 403.571"] ;
162 -> 163 ;
164 [label="mse = 9406580.101\nsamples = 2680\nvalue = 1143.562"] ;
162 -> 164 ;
165 [label="CPL <= 440.895\nmse = 2618108.79\nsamples = 989\nvalue = 356.448"] ;
161 -> 165 ;
166 [label="mse = 551366.913\nsamples = 692\nvalue = 151.228"] ;
165 -> 166 ;
167 [label="mse = 7106789.15\nsamples = 297\nvalue = 834.602"] ;
165 -> 167 ;
168 [label="CPL <= 1270.31\nmse = 2084796.617\nsamples = 3074\nvalue = 238.407"] ;
106 -> 168 ;
169 [label="CPC <= 215.825\nmse = 1028559.887\nsamples = 2768\nvalue = 206.329"] ;
168 -> 169 ;
170 [label="CPC <= 134.595\nmse = 136794.454\nsamples = 620\nvalue = 85.491"] ;
169 -> 170 ;
171 [label="CPC <= 129.905\nmse = 276406.4\nsamples = 116\nvalue = 140.093"] ;
170 -> 171 ;
172 [label="CPC <= 90.2\nmse = 138041.202\nsamples = 112\nvalue = 94.477"] ;
171 -> 172 ;
173 [label="mse = 0.0\nsamples = 23\nvalue = 0.0"] ;
172 -> 173 ;
174 [label="mse = 170811.934\nsamples = 89\nvalue = 118.893"] ;
172 -> 174 ;
175 [label="CPC <= 130.675\nmse = 2461048.696\nsamples = 4\nvalue = 1417.325"] ;
171 -> 175 ;
176 [label="mse = 0.0\nsamples = 1\nvalue = 3785.69"] ;
175 -> 176 ;
177 [label="mse = 788441.474\nsamples = 3\nvalue = 627.87"] ;
175 -> 177 ;
178 [label="CPC <= 150.565\nmse = 103817.42\nsamples = 504\nvalue = 72.924"] ;
170 -> 178 ;
179 [label="CPL <= 557.465\nmse = 2868.119\nsamples = 106\nvalue = 5.226"] ;
178 -> 179 ;
180 [label="mse = 7667.855\nsamples = 39\nvalue = 14.205"] ;
179 -> 180 ;
181 [label="mse = 0.0\nsamples = 67\nvalue = 0.0"] ;
179 -> 181 ;
182 [label="CPC <= 151.26\nmse = 129157.76\nsamples = 398\nvalue = 90.954"] ;
178 -> 182 ;
183 [label="mse = 0.0\nsamples = 1\nvalue = 1662.01"] ;
182 -> 183 ;
184 [label="mse = 123250.26\nsamples = 397\nvalue = 86.996"] ;
182 -> 184 ;
185 [label="CPC <= 217.02\nmse = 1280528.382\nsamples = 2148\nvalue = 241.208"] ;
169 -> 185 ;
186 [label="CPL <= 623.255\nmse = 4978934.654\nsamples = 3\nvalue = 3139.357"] ;
185 -> 186 ;
187 [label="CPC <= 216.49\nmse = 76731.77\nsamples = 2\nvalue = 4709.035"] ;
186 -> 187 ;
188 [label="mse = 0.0\nsamples = 1\nvalue = 4432.03"] ;
187 -> 188 ;
189 [label="mse = -0.0\nsamples = 1\nvalue = 4986.04"] ;
187 -> 189 ;
190 [label="mse = 0.0\nsamples = 1\nvalue = 0.0"] ;
186 -> 190 ;
191 [label="CPC <= 547.29\nmse = 1263592.129\nsamples = 2145\nvalue = 237.154"] ;
185 -> 191 ;
192 [label="CPC <= 541.825\nmse = 1535885.831\nsamples = 1627\nvalue = 282.812"] ;
191 -> 192 ;
193 [label="mse = 1426200.222\nsamples = 1625\nvalue = 271.796"] ;
192 -> 193 ;
194 [label="mse = 10443820.256\nsamples = 2\nvalue = 9233.4"] ;
192 -> 194 ;
195 [label="CPL <= 1213.27\nmse = 381224.013\nsamples = 518\nvalue = 93.746"] ;
191 -> 195 ;
196 [label="mse = 344182.974\nsamples = 503\nvalue = 84.371"] ;
195 -> 196 ;
197 [label="mse = 1521557.602\nsamples = 15\nvalue = 408.117"] ;
195 -> 197 ;
198 [label="CPL <= 1281.855\nmse = 11545747.341\nsamples = 306\nvalue = 528.573"] ;
168 -> 198 ;
199 [label="mse = 0.0\nsamples = 1\nvalue = 36859.73"] ;
198 -> 199 ;
200 [label="CPC <= 695.76\nmse = 7241698.356\nsamples = 305\nvalue = 409.454"] ;
198 -> 200 ;
201 [label="CPL <= 1763.58\nmse = 1367314.755\nsamples = 206\nvalue = 177.945"] ;
200 -> 201 ;
202 [label="CPC <= 450.13\nmse = 39890.843\nsamples = 135\nvalue = 30.094"] ;
201 -> 202 ;
203 [label="mse = -0.0\nsamples = 77\nvalue = 0.0"] ;
202 -> 203 ;
204 [label="mse = 90050.842\nsamples = 58\nvalue = 70.047"] ;
202 -> 204 ;
205 [label="CPL <= 1815.9\nmse = 3770694.498\nsamples = 71\nvalue = 459.069"] ;
201 -> 205 ;
206 [label="mse = 852556.756\nsamples = 2\nvalue = 9787.4"] ;
205 -> 206 ;
207 [label="mse = 1259915.509\nsamples = 69\nvalue = 188.683"] ;
205 -> 207 ;
208 [label="CPC <= 700.375\nmse = 19121577.442\nsamples = 99\nvalue = 891.182"] ;
200 -> 208 ;
209 [label="mse = 0.0\nsamples = 1\nvalue = 29358.52"] ;
208 -> 209 ;
210 [label="CPL <= 1347.655\nmse = 10963036.11\nsamples = 98\nvalue = 600.699"] ;
208 -> 210 ;
211 [label="mse = 69266990.222\nsamples = 8\nvalue = 3508.231"] ;
210 -> 211 ;
212 [label="mse = 4962223.323\nsamples = 90\nvalue = 342.251"] ;
210 -> 212 ;
}